svm_type c_svc
kernel_type rbf
gamma 0.03125
nr_class 2
total_sv 15
rho 15.86
label 0 1
nr_sv 8 7
SV
7.207249894882702 1:-0.802513 2:-0.984552 3:-0.393939 4:-0.999934 5:0.538462 6:-0.950752 7:0.976471 
23.31711244641293 1:0.924596 2:-0.715071 3:-1 4:-0.909906 5:-0.815385 6:0.564979 7:0.0117647 
512 1:-0.0341113 2:-0.354347 3:-0.636364 4:-0.933808 5:-0.446154 6:-0.351573 7:0.105882 
212.1431473548574 1:0.0341113 2:-0.120911 3:-0.69697 4:-0.873986 5:-0.538462 6:-0.151847 7:-0.0823529 
512 1:-0.0843806 2:-0.422224 3:-0.666667 4:-0.946285 5:-0.415385 6:-0.409029 7:0.176471 
512 1:-0.0448833 2:-0.347286 3:-0.666667 4:-0.930394 5:-0.446154 6:-0.337893 7:0.105882 
255.2179149588762 1:-0.00179533 2:-0.285338 3:-0.636364 4:-0.918836 5:-0.476923 6:-0.294118 7:0.0352941 
512 1:-0.016158 2:-0.232753 3:-0.666667 4:-0.906688 5:-0.507692 6:-0.24487 7:-0.0117647 
-181.902952139038 1:0.138241 2:0.115801 3:-0.606061 4:-0.760318 5:-0.753846 6:0.0916553 7:-0.317647 
-218.7765833189843 1:0.016158 2:-0.594531 3:-0.606061 4:-0.89408 5:-0.630769 6:-0.209302 7:-0.0352941 
-512 1:0.0879713 2:0.0469094 3:-1 4:-0.815872 5:-0.753846 6:-0.00683995 7:-0.223529 
-97.2058891970071 1:0.02693 2:-0.619419 3:-1 4:-0.884362 5:-0.692308 6:-0.176471 7:-0.0823529 
-512 1:-0.156194 2:-0.552127 3:-0.484848 4:-0.96697 5:-0.415385 6:-0.518468 7:0.317647 
-512 1:-0.166966 2:-0.376738 3:-0.606061 4:-0.964146 5:-0.415385 6:-0.502052 7:0.294118 
-512 1:-0.116697 2:-0.399286 3:-0.484848 4:-0.956792 5:-0.476923 6:-0.45554 7:0.247059 
